{
    "layers": [
        {
            "name": "input",
            "type": "input",
            "size": 39
        },
        {
            "name": "blstm_level_0",
            "type": "blstm",
            "size": 10,
            "bias": 1
        },
        {
            "name": "subsample_level_0",
            "type": "feedforward_tanh",
            "size": 5,
            "bias": 0
        },
        {
            "name": "blstm_level_1",
            "type": "blstm",
            "size": 10,
            "bias": 1
        },
        {
            "name": "subsample_level_1",
            "type": "feedforward_tanh",
            "size": 5,
            "bias": 0
        },
        {
            "name": "blstm_level_2",
            "type": "blstm",
            "size": 10,
            "bias": 1
        },
        {
            "name": "output",
            "type": "softmax",
            "size": 51,
            "bias": 1
        },
        {
            "name": "postoutput",
            "type": "multiclass_classification",
            "size": 51
        }
    ],
    "weights": {
        "blstm_level_0": {
            "input": [
                0.0527637,
                0.0523827,
                -0.0960978,
                0.0411617,
                -0.0625583,
                -0.0168855,
                -0.0141732,
                -0.0012199,
                0.0808735,
                0.03504,
                0.0350021,
                0.0841895,
                -0.087469,
                0.00187155,
                0.0324527,
                0.0110891,
                -0.0685229,
                0.0647099,
                0.0750406,
                -0.0627612,
                0.0617534,
                -0.0671172,
                -0.0622749,
                0.0665006,
                0.0602216,
                0.0497536,
                -0.0583542,
                -0.0586153,
                0.0420973,
                -0.0471489,
                0.0909085,
                -0.0421352,
                -0.0142572,
                0.0891127,
                -0.0685228,
                0.0994197,
                -0.0162146,
                0.083159,
                0.041012,
                -0.0309875,
                -0.0504376,
                0.0179511,
                0.0568925,
                -0.0900979,
                -0.00132301,
                -0.0812092,
                0.0714659,
                -0.035089,
                0.065722,
                0.0123784,
                -0.0500127,
                -0.0731134,
                0.030067,
                0.0577566,
                -0.0678155,
                0.099824,
                -0.0400477,
                0.0823347,
                -0.0152294,
                -0.0920189,
                -0.0561446,
                -0.0783567,
                0.0568349,
                -0.0740007,
                -0.0655569,
                -0.0304036,
                -0.0260513,
                -0.0913591,
                -0.0383065,
                0.0653678,
                0.010939,
                -0.0631531,
                0.0899526,
                0.0061175,
                0.0521917,
                0.0823037,
                -0.0376348,
                0.0746386,
                -0.0674956,
                0.059877,
                -0.0317661,
                0.0820544,
                -0.045291,
                -0.0497491,
                -0.0688168,
                0.0272618,
                -0.0345759,
                -0.077693,
                0.0972115,
                -0.0401746,
                -0.031173,
                0.0261333,
                -0.0682329,
                0.040418,
                -0.0517318,
                -0.0485583,
                -0.0396246,
                -0.0924825,
                0.0269583,
                -0.0454367,
                -0.0114671,
                0.0648357,
                -0.000270732,
                0.014879,
                0.053942,
                -0.0957482,
                0.0860889,
                0.023553,
                0.0718027,
                -0.0662862,
                -0.0224552,
                0.0959166,
                -0.00300317,
                0.093075,
                0.021755,
                0.0988567,
                -0.0839247,
                0.0859835,
                -0.0327324,
                -0.0657542,
                0.0323798,
                0.0387812,
                -0.0839797,
                0.047919,
                -0.0452992,
                0.0607356,
                0.0948232,
                0.0550224,
                -0.0812666,
                -0.0116581,
                -0.0651452,
                -0.0597221,
                -0.0552088,
                0.0916934,
                -0.00738382,
                -0.0679087,
                -0.0769118,
                -0.0837986,
                0.00558849,
                -0.0428781,
                -0.0589155,
                -0.0846783,
                -0.0314586,
                -0.0715846,
                -0.0121493,
                -0.0102076,
                0.0083669,
                0.0417557,
                -0.0921518,
                -0.0477996,
                0.0121376,
                0.0740035,
                0.0705233,
                -0.0591826,
                -0.0469982,
                -0.0530012,
                -0.0679922,
                0.0686396,
                0.0298174,
                0.00321276,
                -0.0349952,
                0.0622105,
                0.0926233,
                -0.00597618,
                -0.00756173,
                -0.0567565,
                0.0810136,
                0.0196688,
                0.0711668,
                0.0923304,
                0.0522084,
                -0.0208523,
                0.0561844,
                -0.0107442,
                -0.0333557,
                -0.0499096,
                0.0367617,
                -0.0883822,
                -0.0755298,
                0.0189349,
                -0.0359903,
                0.0239101,
                0.0256705,
                -0.0257545,
                0.0621557,
                0.0761641,
                -0.0993879,
                0.0867649,
                0.0836227,
                0.0969286,
                -0.0202101,
                -0.0575966,
                0.043767,
                -0.00335457,
                0.0432679,
                -0.0434963,
                0.0803562,
                -0.0132796,
                0.0713087,
                -0.0635603,
                0.0242885,
                0.0240428,
                -0.0350166,
                -0.0919467,
                -0.0207317,
                0.0869471,
                0.0561617,
                -0.00654908,
                -0.0478171,
                -0.0839302,
                -0.0559598,
                -0.00400577,
                -0.0783937,
                0.0129388,
                0.0417863,
                0.0752705,
                -0.0557046,
                0.0527531,
                0.0551635,
                0.0211756,
                0.0821291,
                -0.0375057,
                -0.0156839,
                0.00258167,
                0.0121794,
                -0.0361645,
                0.0594915,
                -0.068674,
                -0.0129768,
                -0.0233716,
                -0.016595,
                -0.0292267,
                0.079655,
                0.0770524,
                -0.0517906,
                -0.0342626,
                -0.0868631,
                -0.0568936,
                0.0927058,
                -0.0183877,
                -0.0400285,
                -0.0431758,
                0.0604533,
                -0.0969478,
                -0.0121767,
                -0.00492243,
                0.0399352,
                -0.0923561,
                -0.0627552,
                -0.0487037,
                -0.0912509,
                0.081177,
                0.0264625,
                0.0198077,
                0.019276,
                -0.0578222,
                0.0678412,
                -0.0815041,
                -0.0819437,
                0.0891129,
                0.0797055,
                0.046714,
                0.0428203,
                -0.0442661,
                -0.00546642,
                -0.0626797,
                0.0151696,
                -0.0671907,
                -0.088289,
                -0.0498851,
                -0.0362359,
                -0.0302293,
                0.0749761,
                -0.0730295,
                0.0303551,
                0.093797,
                -0.0914762,
                -0.0831224,
                0.0490615,
                -0.0460982,
                -0.0167511,
                0.055149,
                -0.0184324,
                -0.0735219,
                0.0850757,
                -0.0594702,
                0.0804748,
                0.0238795,
                0.0793303,
                -0.066339,
                -0.0444173,
                0.0440969,
                0.013169,
                -0.0444107,
                0.0663517,
                0.0335856,
                0.00664999,
                0.0701719,
                -0.0548626,
                -0.0409593,
                0.0810482,
                0.00712144,
                0.0568058,
                0.0123348,
                0.0993773,
                -0.0472936,
                0.0365616,
                0.00277208,
                -0.00776443,
                0.00926848,
                -0.00344176,
                0.0560401,
                -0.0216857,
                0.0975536,
                -0.0748666,
                0.0403824,
                0.0113368,
                0.0633275,
                -0.0138035,
                -0.0939231,
                0.0336832,
                0.0653462,
                -0.0140944,
                0.0924276,
                0.0627447,
                0.0267465,
                0.0659786,
                -0.0489596,
                0.0718912,
                0.00860091,
                -0.000402994,
                -0.0018332,
                0.0167045,
                -0.0153696,
                0.0897901,
                -0.0951554,
                -0.0965687,
                -0.0961638,
                -0.0812187,
                0.0611669,
                -0.0835965,
                -0.0990998,
                0.0268323,
                0.0679749,
                -0.0891696,
                -0.0469162,
                -0.0268023,
                0.0321331,
                0.0550421,
                0.0748543,
                -0.0282168,
                -0.0618124,
                -0.0701188,
                0.0293123,
                -0.0109187,
                -0.0440115,
                -0.0376851,
                0.0534679,
                -0.0286407,
                -0.0432104,
                -0.0690029,
                0.0578778,
                0.0125977,
                0.0447014,
                0.0458481,
                -0.0283341,
                0.0458957,
                -0.0714859,
                0.0664979,
                0.067803,
                -0.020163,
                0.0272106,
                0.0547118,
                0.0732402,
                -0.0311136,
                -0.0430811,
                0.0656333,
                -0.0856818,
                -0.0517992,
                0.03617,
                -0.00182239,
                -0.00601943,
                0.0478557,
                0.0308877,
                -0.0064125,
                -0.0336511,
                -0.0489867,
                -0.0519359,
                0.0866934,
                -0.0674412,
                0.0178933,
                0.0391521,
                -0.00485688,
                -0.047406,
                0.0719821,
                0.0940972,
                -0.0412153,
                -0.056663,
                0.0921944,
                0.030998,
                0.012826,
                -0.0844674,
                0.067734,
                -0.0355201,
                0.0464939,
                0.0158612,
                -0.0962701,
                -0.0488718,
                0.0216337,
                0.035363,
                0.00937442,
                -0.0143764,
                0.00604224,
                0.0197862,
                0.0233832,
                -0.0757152,
                0.0450043,
                -0.0814504,
                -0.029134,
                -0.0195758,
                -0.060283,
                -0.0895628,
                0.0146099,
                0.0352143,
                0.000427864,
                0.0248388,
                0.0281215,
                -0.0469005,
                0.0823408,
                -0.0317897,
                0.0385425,
                0.0133839,
                -0.001832,
                -0.0645116,
                0.0867756,
                -0.0881143,
                0.069248,
                0.058694,
                0.0883177,
                0.0947948,
                -0.0268907,
                0.0670722,
                0.0517933,
                -0.0483116,
                0.0259621,
                -0.0648077,
                -0.0974998,
                -0.051701,
                -0.0437559,
                0.0326598,
                0.086209,
                0.0802174,
                0.0351126,
                -0.0596356,
                0.0500453,
                0.0574237,
                0.0243382,
                0.0507182,
                0.0507784,
                0.0675454,
                0.0333289,
                -0.000999935,
                0.0662424,
                0.0302172,
                -0.0955678,
                0.0765773,
                -0.0257619,
                0.0299296,
                -0.0315748,
                0.00887082,
                0.0735736,
                0.054984,
                -0.0768777,
                -0.0362545,
                -0.0996204,
                0.0869663,
                -0.0530458,
                0.0961695,
                0.0233218,
                -0.041527,
                0.00348641,
                0.0692114,
                0.0942164,
                -0.0050294,
                0.0420499,
                -0.0718689,
                -0.0236075,
                -0.0782884,
                0.050333,
                0.0613382,
                -0.0401921,
                0.0861944,
                -0.0595959,
                0.0663077,
                -0.0180511,
                -0.0446854,
                0.00357238,
                -0.065035,
                -0.0688609,
                0.0259732,
                -0.0850445,
                -0.0842279,
                -0.0861226,
                0.010043,
                -0.0025856,
                0.030826,
                0.0299819,
                -0.096233,
                0.0997769,
                -0.0376331,
                0.0211595,
                -0.0705463,
                0.0742852,
                0.0877544,
                0.022521,
                0.0893147,
                0.00666364,
                0.0452205,
                0.0543945,
                -0.00364371,
                0.0885927,
                -0.0711454,
                -0.0962708,
                -0.00144617,
                -0.0449269,
                -0.0123228,
                -0.0312886,
                -0.0357556,
                0.0446015,
                -0.0869023,
                -0.0718322,
                0.0152195,
                0.021466,
                -0.0665233,
                -0.0694048,
                0.00712339,
                -0.0312635,
                0.0305045,
                -0.0813172,
                -0.0532903,
                -0.00673769,
                -0.0658506,
                0.0896561,
                0.0831246,
                -0.0333348,
                0.0693225,
                -0.0966241,
                -0.0290853,
                -0.0720248,
                -0.0253491,
                -0.0992312,
                0.0146714,
                -0.0666018,
                -0.01886,
                -0.0865004,
                0.0790595,
                -0.0913014,
                0.0147863,
                -0.00537481,
                0.0117467,
                0.0155338,
                -0.0705382,
                0.0701055,
                0.0102219,
                0.0600873,
                0.0647663,
                -0.0248924,
                -0.0624131,
                -0.0584719,
                -0.0344864,
                0.072943,
                0.0891027,
                0.0119164,
                -0.0278821,
                0.0404966,
                0.0996638,
                -0.0207574,
                0.0492522,
                0.075671,
                -0.0365449,
                0.0142847,
                -0.00197311,
                -0.0954644,
                -0.0951929,
                -0.0139315,
                0.061199,
                -0.0405923,
                0.0562945,
                0.0333862,
                -0.0056993,
                -0.0165479,
                0.00599785,
                -0.0259284,
                0.0151011,
                0.00995572,
                0.01733,
                0.034949,
                0.0104657,
                0.0425213,
                0.0891576,
                -0.0362226,
                0.0545896,
                0.0200469,
                -0.0252019,
                0.0363855,
                0.0408747,
                0.0439042,
                0.0596576,
                0.0998817,
                -0.0445673,
                0.0854079,
                0.0128087,
                0.0365417,
                -0.0597772,
                -0.0682477,
                0.0221709,
                0.0211675,
                -0.0459233,
                -0.00711967,
                -0.0522113,
                -0.0351287,
                -0.0920527,
                -0.0330767,
                0.0653567,
                0.0579233,
                -0.0748487,
                0.0350744,
                -0.0106037,
                0.0954037,
                0.0793605,
                0.0435663,
                -0.0364982,
                0.0198661,
                0.0423865,
                0.0223449,
                -0.0423969,
                0.0855265,
                -0.0410268,
                -0.0336926,
                0.0243011,
                0.0208079,
                -0.0678552,
                0.0817241,
                0.081925,
                -0.0486076,
                -0.0681221,
                -0.0391143,
                -0.0140053,
                0.0025654,
                -0.0257155,
                0.0492289,
                0.0955774,
                0.0150478,
                0.0381924,
                0.0379855,
                -0.0444061,
                -0.0599574,
                0.0119423,
                -0.0696157,
                -0.0244826,
                0.0587311,
                0.0470039,
                -0.0219437,
                0.0809865,
                0.0722547,
                -0.0524022,
                0.0266548,
                -0.0305159,
                -0.0224688,
                0.0452281,
                0.072874,
                0.00708121,
                -0.0376232,
                0.0763288,
                -0.045574,
                -0.0584506,
                -0.0209885,
                0.0770307,
                -0.0363706,
                -0.0279341,
                -0.0757736,
                -0.0482102,
                -0.0783793,
                -0.00418644,
                0.0514492,
                0.0393579,
                -0.0244655,
                -0.0522852,
                0.0390732,
                0.0441057,
                -0.0969746,
                -0.0726708,
                -0.00705941,
                -0.0548472,
                -0.000670806,
                0.0990615,
                0.0611515,
                -0.0696333,
                -0.0927417,
                -0.0453606,
                0.0441342,
                -0.00715612,
                0.0016849,
                -0.0425016,
                -0.0645377,
                0.0115519,
                0.0859963,
                0.0294484,
                -0.0771204,
                -0.0647882,
                -0.0552289,
                -0.0682738,
                0.0549184,
                0.099712,
                0.0825883,
                0.0458663,
                0.0952751,
                -0.00282057,
                0.0799132,
                -0.0812104,
                -0.00731964,
                -0.0981901,
                0.0804472,
                0.00528844,
                0.0399634,
                0.0251673,
                -0.0244674,
                -0.0426602,
                -0.023807,
                -0.0810778,
                -0.0223057,
                0.0551526,
                0.016412,
                -0.00385635,
                0.0135877,
                0.0520222,
                0.0106516,
                -0.0231256,
                -0.0885291,
                0.0345025,
                -0.0282143,
                -0.0455678,
                0.00935721,
                0.0763574,
                0.0191571,
                -0.0736378,
                0.00363451,
                0.0021507,
                0.0184675,
                -0.057101,
                -0.0317787,
                -0.0552904,
                0.0492697,
                -0.0375311,
                -0.0519782,
                -0.00887279,
                0.0632815,
                -0.0384809,
                -0.0803681,
                0.0676732,
                -0.0652314,
                -0.0359329,
                -0.0906691,
                0.0388831,
                -0.067984,
                -0.00120986,
                0.0554848,
                0.0634366,
                0.0631689,
                -0.0817972,
                0.0598289,
                -0.0410442,
                0.0863895,
                -0.0012407,
                0.0432138,
                -0.0198607,
                -0.0453561,
                -0.0015773,
                -0.0362703,
                0.0755764,
                -0.0508227,
                -0.0120705,
                -0.0229986,
                -0.0445197,
                0.00477873,
                0.0540558,
                -0.066913,
                0.0492113,
                -0.0320167,
                -0.0728385,
                0.0164235,
                -0.0732079,
                -0.0459241,
                -0.00494119,
                0.0268482,
                0.0582184,
                0.0363324,
                -0.0198113,
                -0.060351,
                0.0710521,
                0.0923712,
                0.0182467,
                -0.0568206,
                0.0634168,
                -0.0966325,
                0.0450156,
                -0.0126934,
                0.0118903,
                -0.0281683,
                0.0926732,
                0.0990876,
                0.0700147,
                0.0116931,
                0.0972513,
                -0.0571425,
                0.0349574,
                -0.0925428,
                0.0219858,
                -0.0622165,
                -0.0695835,
                0.0807606,
                -0.0520513,
                -0.0226481,
                0.0272688,
                0.0118435,
                -0.0510412,
                -0.0200595,
                -0.0987864,
                0.0752142,
                0.0460002,
                0.0161314,
                -0.0436361,
                -0.00514508,
                -0.000675514,
                0.0682124,
                -0.0421444,
                -0.00911361,
                0.00273403,
                0.0263116,
                0.0459142,
                0.091572,
                -0.0309924,
                -0.0885616,
                0.088004,
                -0.0393859,
                -0.0112651,
                0.028437,
                0.0863913,
                -0.0546875,
                0.0980707,
                -0.00815105,
                0.00599442,
                -0.0490531,
                0.0351407,
                -0.0376835,
                -0.0999822,
                -0.0111333,
                0.0648988,
                -0.0748592,
                0.0232282,
                0.0248047,
                0.0779938,
                -0.0938725,
                0.0277077,
                0.0300455,
                0.0167341,
                0.0104048,
                -0.0924415,
                0.0738559,
                -0.0578459,
                -0.0615561,
                0.0207635,
                -0.0339629,
                -0.00199392,
                0.023557,
                -0.0676195,
                -0.00348176,
                -0.0439559,
                -0.0351569,
                -0.0929882,
                -0.0926516,
                -0.0656286,
                0.0632607,
                -0.0935243,
                0.0972279,
                0.0815915,
                0.0577484,
                -0.0631415,
                0.0204927,
                0.00860658,
                -0.0849424,
                0.061862,
                -0.0334175,
                0.0297498,
                0.0987948,
                0.0345879,
                -0.0701995,
                0.0396407,
                -0.037846,
                -0.0245382,
                -0.0467359,
                -0.0679239,
                0.0176743,
                -0.0374062,
                0.080724,
                -0.0825579,
                -0.0807233,
                0.0834319,
                0.059429,
                -0.074524,
                -0.0896616,
                0.0619944,
                -0.0719866,
                0.0948515,
                0.0772133,
                -0.0997163,
                -0.0758764,
                -0.0236333,
                -0.0810902,
                -0.0751322,
                0.0891364,
                -0.0747882,
                -0.0872105,
                -0.0961099,
                0.0674133,
                0.0194768,
                0.0118799,
                -0.099409,
                0.019662,
                -0.0449134,
                -0.0246452,
                -0.0204809,
                -0.0506147,
                0.0369217,
                0.0864423,
                0.0560834,
                0.0792137,
                -0.0200409,
                -0.0486456,
                0.0837683,
                -0.0539508,
                0.0613401,
                0.0214057,
                0.0676569,
                0.0907814,
                -0.0951735,
                0.0861427,
                0.0241865,
                0.0464794,
                0.0806222,
                -0.0323506,
                -0.0877958,
                0.0645116,
                -0.023034,
                0.0102748,
                0.0363039,
                0.0185298,
                -0.0974137,
                -0.0738274,
                0.0470113,
                -0.0823083,
                -0.0175195,
                -0.0305696,
                -0.00254813,
                -0.0462384,
                -0.0994877,
                -0.0400168,
                0.0901396,
                -0.0609144,
                -0.0348608,
                -0.0441772,
                -0.0935501,
                0.0432256,
                0.0460196,
                0.0231662,
                -0.0504466,
                0.0186933,
                -0.0659913,
                -0.00787497,
                0.00287378,
                0.0474483,
                0.0907596,
                0.0530242,
                0.0823465,
                -0.00963082,
                0.0859107,
                0.0887015,
                -0.0595376,
                0.091106,
                -0.0461104,
                -0.0451301,
                -0.0801199,
                0.091921,
                0.0989469,
                0.0562447,
                -0.056833,
                -0.0344731,
                -0.0123433,
                -0.0287117,
                0.00580879,
                -0.044219,
                -0.00809093,
                0.071559,
                0.0784315,
                0.0773763,
                -0.080686,
                0.0947828,
                -0.011913,
                0.0982773,
                0.078191,
                0.077244,
                0.0548335,
                -0.0803774,
                -0.0587572,
                -0.0410085,
                -0.00300787,
                0.0550627,
                0.0230218,
                -0.024395,
                0.0490738,
                -0.0300345,
                -0.0652425,
                0.0638705,
                0.0936267,
                0.0217442,
                -0.0425854,
                0.00925402,
                0.0981572,
                0.0031908,
                -0.00922674,
                -0.0243143,
                0.0885742,
                -0.0995814,
                -0.090002,
                0.0489703,
                0.0205339,
                -0.0654587,
                0.0568342,
                0.0861846,
                0.0442494,
                -0.0485359,
                0.0803353,
                0.0980303,
                0.0578391,
                -0.064726,
                0.0576479,
                -0.0872203,
                0.0852439,
                0.0347684,
                0.0493065,
                0.0911156,
                -0.0455132,
                0.0895849,
                -0.0773195,
                -0.0229537,
                0.00912309,
                0.0534437,
                0.0443317,
                0.066584,
                0.0771508,
                0.0718014,
                0.0713999,
                -0.0435502,
                0.0427666,
                -0.0895061,
                0.0243903,
                -0.0325194,
                -0.0423703,
                -0.00589933,
                -0.0978222,
                -0.0239198,
                -0.0418341,
                -0.0203738,
                0.0296069,
                0.0800771,
                -0.0549402,
                -0.0700652,
                0.0300954,
                0.04518,
                -0.0170883,
                0.0763078,
                0.0536578,
                0.0118965,
                0.0473399,
                0.0992219,
                -0.0770671,
                0.0787682,
                0.0824372,
                0.0357332,
                0.0369641,
                0.0279196,
                0.0860882,
                -0.0506181,
                -0.0797156,
                0.0165519,
                0.0719889,
                -0.0272362,
                0.0708177,
                0.00771944,
                -0.0374559,
                -0.0697731,
                0.0658054,
                0.0763049,
                0.00625996,
                -0.0915132,
                0.0181497,
                -0.0281703,
                -0.00870525,
                0.0439596,
                0.048303,
                -0.0995869,
                0.097984,
                -0.0494129,
                0.0351824,
                -0.0782707,
                -0.0865271,
                -0.0510745,
                0.0544809,
                0.035432,
                0.0799075,
                0.0399774,
                0.0119161,
                0.0461821,
                0.0759031,
                0.0800288,
                0.0404766,
                0.0993749,
                -0.0802901,
                0.070173,
                0.096505,
                -0.0568286,
                -0.0774034,
                0.00748315,
                -0.00755558,
                0.0253902,
                -0.0889387,
                -0.0474045,
                -0.0278571,
                0.0311281,
                0.020228,
                0.00600071,
                0.0584612,
                0.0607576,
                0.0727912,
                -0.0793759,
                0.0351712,
                -0.0630624,
                -0.090434,
                -0.0118495,
                -0.0503087,
                -0.0997828,
                -0.0829584,
                0.0327703,
                -0.0959433,
                0.0434829,
                -0.0451793,
                -0.0596669,
                -0.0286096,
                -0.0612097,
                0.0646268,
                0.099679,
                0.0177047,
                0.0845666,
                0.076905,
                0.0579733,
                -0.0475043,
                -0.0723881,
                0.0227911,
                0.0409156,
                0.0679084,
                -0.0533341,
                -0.0735487,
                0.057474,
                -0.0470408,
                0.0497206,
                -0.091428,
                0.00697954,
                0.0649049,
                0.00756359,
                0.0326306,
                0.0522271,
                -0.0360766,
                0.0394613,
                0.0316669,
                -0.097313,
                -0.0614097,
                -0.0130464,
                0.00518483,
                0.0921589,
                0.015563,
                -0.0194076,
                -0.0242365,
                0.0421792,
                -0.0857976,
                0.0174269,
                0.0811766,
                0.000559591,
                -0.059584,
                -0.0329739,
                0.0152574,
                0.0822338,
                0.0349655,
                0.054011,
                0.00173552,
                0.03275,
                -0.0564797,
                -0.0639512,
                0.0115969,
                -0.0959144,
                0.0999788,
                -0.0567478,
                0.00860224,
                -0.0979064,
                -0.00926289,
                0.0374467,
                -0.0204177,
                -0.016352,
                -0.0500625,
                0.0912276,
                0.0296283,
                -0.0154379,
                -0.0187071,
                0.0947952,
                -0.0910453,
                0.00285997,
                0.0309291,
                -0.0274816,
                0.0991224,
                0.0789939,
                0.00892708,
                -0.0485117,
                0.0577428,
                -0.0106527,
                -0.0379716,
                0.08352,
                -0.082573,
                0.0515942,
                -0.0141631,
                -0.0459361,
                0.00859489,
                0.094902,
                0.000356056,
                -0.000102796,
                0.0168093,
                0.0939048,
                -0.096699,
                -0.0173745,
                0.0792781,
                0.0130749,
                -0.0246006,
                0.0352226,
                0.0102668,
                -0.0864685,
                -0.0939553,
                -0.0272515,
                -0.0239882,
                0.0880387,
                0.018607,
                -0.0382221,
                -0.036585,
                -0.0746915,
                0.0524727,
                0.0223678,
                -0.0446441,
                0.0325654,
                0.00224439,
                -0.0890712,
                0.015133,
                0.00410875,
                -0.00196441,
                -0.0673407,
                0.0953088,
                0.0477508,
                -0.0243201,
                0.0957601,
                0.0810813,
                0.0130856,
                -0.0763151,
                0.0883097,
                -0.0533567,
                -0.05711,
                -0.0693814,
                0.0876774,
                0.0739095,
                0.0485642,
                0.095245,
                0.0394679,
                0.0472894,
                0.0316954,
                0.0454121,
                0.081173,
                -0.0924795,
                0.0262192,
                0.0419652,
                0.0947464,
                0.0777676,
                -0.0341315,
                0.0137372,
                -0.068987,
                0.0325306,
                -0.0945432,
                0.0630775,
                0.0927111,
                0.0468347,
                0.0603349,
                0.0488839,
                0.0232911,
                -0.0247832,
                0.0648968,
                -0.0106778,
                -0.0838787,
                -0.0491664,
                -0.0573089,
                -0.0727071,
                0.0905337,
                -0.085775,
                -0.000644974,
                0.00727715,
                -0.0309986,
                0.0340578,
                -0.0511725,
                -0.00255626,
                0.0792663,
                0.0444338,
                0.0754109,
                0.0166995,
                -0.061121,
                0.00487355,
                0.0140295,
                -0.0459681,
                0.0269682,
                0.0083921,
                -0.0412802,
                -0.085442,
                0.0673999,
                0.044495,
                -0.097497,
                -0.0757205,
                -0.0767241,
                0.0790502,
                -0.0858249,
                -0.0178463,
                0.035217,
                -0.0437551,
                -0.0461184,
                0.0759291,
                0.0741074,
                -0.0904816,
                0.0268284,
                -0.023642,
                -0.0794985,
                0.0894226,
                -0.00287183,
                0.0824265,
                -0.0204711,
                -0.00128798,
                0.0205899,
                0.0337522,
                -0.0449997,
                0.0407285,
                -0.00182652,
                0.0465505,
                -0.0166454,
                0.0143657,
                0.0892833,
                0.082134,
                0.0355137,
                -0.0765063,
                0.043518,
                0.0262956,
                0.0346989,
                0.00659038,
                -0.012212,
                -0.049288,
                0.0401118,
                0.0203193,
                -0.0891828,
                -0.0685649,
                -0.0574342,
                -0.0778351,
                0.0961321,
                -0.0621123,
                0.0507766,
                -0.00747778,
                0.0950512,
                0.0385195,
                -0.0861697,
                -0.0649169,
                -0.0543526,
                -0.0775167,
                0.0687497,
                0.0344621,
                0.0347987,
                0.0318738,
                0.0060934,
                0.0510503,
                -0.0536956,
                0.0557434,
                0.014255,
                -0.0616551,
                -0.0870258,
                0.0571552,
                0.0468845,
                -0.070652,
                0.0847605,
                -0.0572016,
                -0.0639635,
                -0.0473612,
                -0.046289,
                -0.0833297,
                0.0734011,
                0.0243189,
                -0.0961196,
                0.0119201,
                0.0444112,
                0.0729611,
                -0.0846374,
                0.0130667,
                0.0505785,
                -0.0835296,
                0.0179598,
                0.0778399,
                -0.0759422,
                0.0903575,
                -0.0273015,
                0.0783716,
                0.0407824,
                0.0106492,
                -0.066017,
                -0.0971091,
                -0.0347396,
                -0.0386889,
                -0.0354012,
                0.0260734,
                -0.0169869,
                -0.0268096,
                -0.0384851,
                -0.00975019,
                -0.0753493,
                0.0986725,
                0.00872475,
                -0.091256,
                -0.0059785,
                0.0359004,
                -0.0857741,
                0.0198475,
                -0.0354037,
                0.0474678,
                0.00153867,
                -0.030419,
                -0.059427,
                -0.0060816,
                -0.0967391,
                0.0836357,
                0.0841604,
                0.0816067,
                -0.0557197,
                0.0570789,
                0.039589,
                0.0358101,
                0.00193977,
                0.0951647,
                0.0078074,
                -0.0388271,
                0.0631597,
                -0.0867856,
                0.00824594,
                0.0943865,
                0.0636765,
                0.062975,
                -0.0840126,
                0.0276502,
                0.0580964,
                0.0185381,
                -0.00443898,
                -0.00813454,
                -0.0515451,
                0.0752817,
                0.0285894,
                0.0243521,
                0.0440462,
                -0.0943581,
                0.0247223,
                -0.0707923,
                0.0636505,
                -0.00278035,
                0.0766604,
                0.0352952,
                -0.0133724,
                0.0999085,
                -0.0947545,
                -0.0270354,
                0.0283128,
                -0.098556,
                0.0635912,
                -0.0330488,
                0.0533512,
                -0.00372843,
                -0.0415267,
                -0.0365257,
                -0.0636278,
                0.0680489,
                0.010363,
                0.0188162,
                0.0817952,
                -0.0767019,
                0.0430276,
                0.0487961,
                0.0456028,
                0.0537105,
                0.0892489,
                0.094548,
                0.0246494,
                -0.0587318,
                -0.00823898,
                -0.0698338,
                -0.0491366,
                0.0662059,
                -0.0455088,
                0.0374261,
                0.0347048,
                -0.0798294,
                0.00414816,
                0.0618057,
                0.0850839,
                -0.0276659,
                -0.0579192,
                -0.0903559,
                -0.0706898,
                -0.0990199,
                -0.0985985,
                -0.0576434,
                0.0714324,
                0.080069,
                -0.0161062,
                0.0630472,
                -0.0662338,
                -0.0443671,
                0.0858721,
                0.0497968,
                0.0519043,
                0.0885971,
                -0.0678988,
                0.0953014,
                -0.0428859,
                0.00332234,
                0.0877455,
                0.0169031,
                -0.093205,
                0.0683121,
                -0.0239827,
                0.0403989,
                -0.0891723,
                -0.0702968,
                0.0540174,
                -0.0448474,
                -0.0936203,
                -0.0250749,
                -0.00124673,
                0.0395874
            ],
            "bias": [
                0.0217023,
                -0.0439126,
                0.0295663,
                -0.0280316,
                -0.060302,
                -0.035269,
                0.074246,
                0.0916898,
                0.0320336,
                -0.0742973,
                0.0856066,
                0.0154442,
                -0.0180953,
                0.0070249,
                0.0269756,
                0.0960262,
                -0.05523,
                -0.0499191,
                0.0640707,
                0.0809528,
                -0.00793436,
                -0.0717404,
                0.0216502,
                0.0725945,
                -0.0318927,
                0.0366578,
                0.0534219,
                0.0946441,
                0.0887812,
                -0.0309173,
                0.0465218,
                0.075731,
                -0.0107478,
                0.0947197,
                -0.0831903,
                -0.0851268,
                0.00615153,
                -0.0602172,
                0.00463073,
                0.087065
            ],
            "internal": [
                0.0391062,
                0.0395626,
                -0.0384401,
                -0.014369,
                -0.0466561,
                0.00468518,
                -0.00290348,
                -0.0366301,
                -0.0931089,
                -0.00475128,
                -0.0744281,
                -0.0631609,
                0.0769249,
                -0.000604138,
                0.002952,
                -0.0884128,
                0.00776036,
                -0.031404,
                -0.0193101,
                0.0278274,
                0.0835985,
                -0.0779128,
                0.0164692,
                0.0326104,
                -0.000163615,
                -0.0992972,
                -0.0889288,
                0.00475127,
                -0.0357243,
                -0.0709431,
                -0.00410897,
                -0.0730477,
                0.00647113,
                -0.0787494,
                -0.00354053,
                -0.0116193,
                0.00567393,
                -0.0966431,
                0.0863826,
                -0.099858,
                -0.0138292,
                -0.00202952,
                0.049532,
                -0.0148018,
                0.0847761,
                -0.0646509,
                0.0702552,
                -0.0823969,
                -0.0452839,
                -0.0527828,
                0.0881944,
                -0.0104896,
                -0.0802868,
                0.069113,
                -0.0538671,
                0.0627359,
                -0.0693008,
                0.0371085,
                0.029663,
                -0.0398178,
                -0.021129,
                -0.00615363,
                0.0136134,
                0.04898,
                -0.0978723,
                -0.0955637,
                -0.0481832,
                -0.00917086,
                0.0818802,
                -0.0986075,
                -0.0257965,
                -0.0949226,
                0.0567622,
                -0.0169341,
                0.0198386,
                0.00629268,
                0.0333996,
                0.0151385,
                -0.0107598,
                0.074371,
                0.0529869,
                -0.0976723,
                -0.0287977,
                0.0784694,
                0.0773091,
                0.000243187,
                -0.0163786,
                0.0812074,
                0.0270025,
                -0.0963708,
                0.0045881,
                -0.0277141,
                -0.0890308,
                -0.0207832,
                -0.0683746,
                0.0491983,
                -0.00341269,
                -0.00628276,
                -0.0518526,
                0.0865765,
                -5.18039e-05,
                -0.0694744,
                0.0773208,
                0.0454872,
                -0.0938378,
                0.0026883,
                -0.0768644,
                -0.0829934,
                -0.0794922,
                0.0306473,
                -0.0820361,
                0.0136163,
                -0.092524,
                -0.0298705,
                0.0485085,
                -0.0907554,
                0.0264536,
                -0.0100774,
                0.0143219,
                -0.0966947,
                -0.0919338,
                0.0515862,
                0.074739,
                -0.032355,
                -0.0451224,
                0.0224551,
                0.0157606,
                -0.0402867,
                0.0879672,
                0.0251574,
                -0.0492724,
                0.0683381,
                -0.0715289,
                -0.00207438,
                -0.0672212,
                0.0827239,
                -0.0103597,
                0.00339341,
                -0.0548971,
                -0.0303284,
                0.0864625,
                -0.0331218,
                0.0869784,
                -0.0902493,
                -0.0446668,
                -0.00450552,
                0.0900505,
                -0.0232787,
                0.0948575,
                -0.0525626,
                -0.0386485,
                -0.0626036,
                -0.00127991,
                0.0794439,
                0.0627384,
                -0.0764587,
                0.031638,
                -0.0972871,
                0.0176939,
                0.000371024,
                -0.00644051,
                -0.0977716,
                -0.016891,
                0.00440478,
                0.0376085,
                -0.022536,
                -0.0411887,
                -0.0640173,
                0.0548863,
                -0.0848226,
                0.00793233,
                0.0475679,
                -0.0135769,
                -0.0798046,
                0.0691725,
                -0.0585743,
                -0.0697769,
                -0.00164351,
                -0.00963441,
                -0.0602546,
                0.0971019,
                0.0834989,
                -0.0760423,
                -0.0259739,
                0.0385773,
                0.0379496,
                -0.0345578,
                -0.0676742,
                -0.0321698,
                -0.0360353,
                -0.0674382,
                -0.029998,
                0.0784047,
                0.0837867,
                0.0885442,
                -0.066601,
                0.0599407,
                0.0367664,
                -0.0587774,
                -0.0948184,
                -0.0321194,
                -0.0081778,
                -0.0113465,
                0.0712975,
                -0.0431297,
                -0.0776893,
                -0.0157229,
                -0.0537134,
                -0.0193265,
                -0.0959524,
                0.0649771,
                0.000722662,
                -0.0897241,
                -0.066458,
                -0.0621732,
                -0.0200978,
                -0.00120364,
                -0.00566188,
                0.0543408,
                -0.0180551,
                -0.0966207,
                0.0495124,
                -0.028722,
                0.0911824,
                0.0799991,
                -0.0184089,
                -0.00272296,
                -0.0162611,
                -0.0726708,
                -0.0126692
            ]
        },
        "subsample_level_0": {
            "input": [
                0.0355577,
                0.0781455,
                0.0763434,
                -0.0752298,
                -0.0659282,
                0.0223533,
                -0.0803712,
                -0.0537118,
                -0.00193185,
                0.0889865,
                -0.015883,
                0.018021,
                -0.00482042,
                0.0995483,
                -0.0317297,
                -0.0687335,
                -0.0233618,
                -0.0448593,
                0.0580929,
                0.0288598,
                0.0638819,
                -0.0602209,
                -0.0879032,
                0.0404956,
                0.0613922,
                0.0182254,
                0.0672127,
                -0.0434254,
                -0.0886235,
                0.0554598,
                -0.0827985,
                -0.0723317,
                -0.0868933,
                0.0393066,
                0.0650986,
                0.0900729,
                -0.0400952,
                0.00564767,
                0.0373708,
                -0.00298889,
                -0.0808754,
                0.0304085,
                0.0135187,
                -0.0359108,
                -0.0459837,
                0.0310385,
                0.0344476,
                0.0863046,
                -0.0767389,
                0.0780678
            ],
            "bias": [
                0.0705381,
                0.0683482,
                0.0368186,
                0.0958455,
                -0.0405405
            ],
            "internal": []
        },
        "blstm_level_1": {
            "input": [
                -0.0336515,
                0.0734261,
                -0.0367065,
                -0.0530315,
                0.0919256,
                -0.0501961,
                0.0118181,
                0.0429572,
                0.0207816,
                -0.0399165,
                -0.00482839,
                0.0599908,
                -0.0700247,
                0.0116451,
                -0.0459714,
                -0.0130501,
                0.0947558,
                -0.0950734,
                -0.0222386,
                0.0652985,
                0.0971739,
                -0.0864003,
                -0.00129725,
                0.0786739,
                -0.00543665,
                0.0239728,
                0.0939967,
                -0.0162057,
                0.0293202,
                0.0891634,
                -0.0212685,
                -0.040739,
                -0.0248325,
                0.0790812,
                -0.0737471,
                -0.0676301,
                0.0398001,
                -0.0199581,
                -0.045475,
                -0.0603708,
                0.0830696,
                0.0435707,
                0.0374149,
                -0.0759832,
                -0.0975428,
                0.00707158,
                -0.039759,
                -0.0837506,
                -0.016438,
                0.00661449,
                0.0205884,
                -0.0986349,
                -0.0522102,
                0.0271746,
                -0.00766367,
                0.0628703,
                0.0416367,
                -0.026555,
                0.0903479,
                0.0750553,
                0.0363378,
                0.0417401,
                -0.0859323,
                0.0501018,
                0.0884628,
                -0.0744511,
                -0.0729049,
                0.0858526,
                0.0277462,
                0.091192,
                0.0752192,
                -0.071284,
                0.0984532,
                0.0474421,
                -0.0473763,
                -0.00284851,
                -0.0868463,
                -0.0848635,
                0.0754278,
                0.0629109,
                -0.000460438,
                0.0986934,
                -0.0936467,
                -0.0738993,
                0.0619455,
                -0.0450829,
                0.00295001,
                0.0318289,
                -0.0350754,
                -0.0858283,
                -0.017873,
                -0.0158895,
                -0.0138991,
                0.0245315,
                0.0760447,
                -0.0817776,
                -0.0478291,
                0.00432553,
                0.0255609,
                0.0980008,
                0.0503326,
                -0.069147,
                0.0572359,
                0.0549336,
                0.0527587,
                -0.0294944,
                -0.0752331,
                0.0106488,
                -0.0529702,
                0.0183403,
                0.0823656,
                -0.0486204,
                0.0397225,
                0.0650313,
                -0.0101214,
                -0.0943194,
                0.09438,
                0.0841704,
                0.0566874,
                0.000625767,
                0.0455192,
                0.029472,
                0.0242064,
                0.074959,
                0.0656526,
                -0.0635757,
                0.0760007,
                -0.0942729,
                0.0399642,
                -0.051319,
                0.0230163,
                -0.073355,
                -0.0227197,
                0.020882,
                -0.0135039,
                0.0426788,
                -0.0438055,
                -0.0851013,
                -0.0558252,
                0.0553741,
                0.0469831,
                -0.00273053,
                -0.0329377,
                0.0906859,
                -0.0494409,
                0.0759345,
                -0.0848861,
                -0.0979564,
                -0.0545028,
                0.0298763,
                0.00523277,
                -0.0271545,
                -0.0469654,
                -0.0178753,
                0.0234303,
                -0.00646114,
                0.0960364,
                0.0218934,
                0.0624905,
                0.0129118,
                0.0779574,
                -0.0563068,
                -0.0352112,
                -0.0901887,
                0.0123736,
                0.0293793,
                -0.0886285,
                -0.0278224,
                0.0447165,
                0.0125221,
                0.0144161,
                0.0716401,
                -0.0806815,
                0.0594245,
                0.0896575,
                -0.026503,
                -0.0586672,
                -0.0410401,
                0.0123481,
                0.0350502,
                0.0365905,
                -0.0182041,
                0.0362307,
                -0.00348505,
                -0.0653306,
                -0.0211091,
                0.081847,
                -0.0630567,
                -0.0715159,
                -0.0359294,
                -0.0636877,
                0.0780884,
                0.0120983,
                -0.0310938,
                -0.0393167,
                -0.0836228,
                -0.00445373,
                0.00901657,
                0.029562,
                0.020216
            ],
            "bias": [
                0.0488009,
                -0.0695846,
                0.0413239,
                0.0473525,
                -0.056236,
                0.00848967,
                -0.0333325,
                -0.0305208,
                0.0278992,
                0.0660544,
                -0.0925139,
                0.0926894,
                0.0296655,
                -0.0602964,
                0.0393202,
                -0.018126,
                0.0305067,
                -0.0595813,
                0.00108655,
                -0.0746562,
                0.0419576,
                0.051101,
                -0.0169645,
                0.0845096,
                -0.0669801,
                0.0319519,
                -0.033489,
                -0.099233,
                0.071219,
                0.0144478,
                0.0468258,
                -0.00584041,
                0.0913471,
                -0.0960308,
                0.0108479,
                0.00990872,
                0.0247378,
                0.0373995,
                -0.0784532,
                -0.0707667
            ],
            "internal": [
                0.0839974,
                0.00801662,
                -0.0552546,
                -0.0123456,
                0.0659786,
                -0.0788485,
                0.0562354,
                0.0270278,
                0.0110522,
                -0.00357058,
                -0.0394388,
                -0.0214987,
                0.0943753,
                -0.0141443,
                0.00772832,
                0.00952961,
                -0.0585919,
                0.0978361,
                -0.0832179,
                -0.0918764,
                -0.0645631,
                0.0674429,
                0.0666743,
                -0.0657274,
                -0.0947029,
                0.0421195,
                -0.00610807,
                -0.0748497,
                0.0493532,
                -0.0644496,
                -0.0444323,
                0.0183131,
                -0.0847479,
                -0.00145279,
                0.0681879,
                0.0565596,
                0.0298255,
                0.0118118,
                -0.0787458,
                0.00292222,
                0.0585563,
                -0.0655022,
                0.0373031,
                -0.0613211,
                -0.0500366,
                -0.012424,
                0.0457136,
                0.00811805,
                0.0838991,
                0.0779517,
                -0.052676,
                -0.021471,
                -0.00244717,
                0.0740068,
                0.041599,
                0.0933311,
                0.0848927,
                -0.0843548,
                0.0998573,
                -0.0790319,
                0.00285657,
                0.0366845,
                0.0297196,
                0.0887972,
                0.0786762,
                0.0371665,
                0.011631,
                0.0964164,
                0.0591907,
                -0.0116168,
                -0.0219554,
                -0.0703814,
                0.0363922,
                0.0229939,
                0.073962,
                -0.0755224,
                -0.0814091,
                -0.022095,
                -0.0476368,
                -0.0711756,
                0.0880387,
                0.0648686,
                -0.0102064,
                -0.042205,
                -0.0608145,
                0.00995792,
                -0.00703198,
                -0.0369826,
                0.0855026,
                0.00791643,
                -0.0613708,
                0.0777848,
                0.0582808,
                -0.0219951,
                0.0349912,
                0.0898976,
                -0.0945819,
                0.0670387,
                0.0443478,
                -0.0345664,
                0.0870153,
                0.0632417,
                0.0351905,
                0.0644321,
                -0.0373499,
                0.000838205,
                -0.0422283,
                -0.0893507,
                -0.0556934,
                0.0837513,
                0.0773171,
                0.0381704,
                0.0979757,
                0.0405036,
                -0.0379981,
                -0.0678975,
                -0.0674266,
                0.0521464,
                0.0484867,
                0.0782784,
                0.076888,
                -0.027223,
                0.0787921,
                0.0709058,
                -0.0968433,
                0.08954,
                -0.036341,
                0.0610511,
                -0.089155,
                0.0674445,
                -0.0478723,
                0.08296,
                -0.0229003,
                0.0351632,
                -0.0660374,
                -0.0462703,
                0.0644379,
                0.0528788,
                -0.0600397,
                0.0798666,
                -0.0400966,
                0.0652849,
                0.0988073,
                -0.0873708,
                0.00289245,
                0.0682904,
                -0.00478103,
                0.0313284,
                -0.0938134,
                0.0234734,
                0.0407344,
                0.0361475,
                0.00825612,
                0.0119912,
                0.00696864,
                0.052552,
                -0.013038,
                -0.00293843,
                0.0563564,
                -0.0221523,
                0.0721001,
                0.0261707,
                -0.0804476,
                0.085471,
                -0.0182787,
                0.0398162,
                -0.053422,
                0.0847912,
                0.0759374,
                0.0344283,
                0.00607727,
                -0.0131591,
                -0.0717969,
                0.0445493,
                0.0154829,
                -0.0170334,
                0.0286088,
                0.0622865,
                -0.0666142,
                -0.0939113,
                -0.0804331,
                -0.0634249,
                -0.064236,
                0.0253017,
                0.000405833,
                -0.0400549,
                -0.0301277,
                -0.0363316,
                0.0911929,
                0.082172,
                0.0924816,
                0.0444492,
                -0.0530823,
                0.0383223,
                -0.0994483,
                -0.0165239,
                -0.0219635,
                -0.0286977,
                0.0565166,
                -0.0571482,
                -0.0298398,
                -0.0898419,
                0.0484337,
                -0.0141692,
                -0.0526725,
                -0.0791705,
                0.0432982,
                -0.0660511,
                0.0845155,
                -0.0818297,
                -0.0778652,
                0.0171352,
                -0.0709919,
                -0.0354859,
                -0.0835588,
                0.0924847,
                -0.0747854,
                -0.0883159,
                -0.0378252,
                0.060919,
                -0.00465181,
                0.0031511,
                -0.027162,
                -0.0968443,
                -0.0877402,
                -0.00989963,
                -0.000951178,
                -0.09012,
                0.0353681,
                0.0559898
            ]
        },
        "subsample_level_1": {
            "input": [
                0.0878151,
                0.00195839,
                -0.0690557,
                0.000671521,
                0.0875461,
                -0.0819159,
                0.0515632,
                0.00681989,
                -0.0685547,
                -0.0255245,
                0.0485741,
                -0.0933876,
                -0.0441188,
                -0.0154036,
                -0.0394055,
                -0.090775,
                0.0118096,
                -0.0784389,
                0.0316844,
                0.0333194,
                0.0125232,
                0.0226443,
                -0.00750482,
                -0.0488482,
                -0.031036,
                -0.0822503,
                -0.0583061,
                -0.0226539,
                -0.0428169,
                -0.0626005,
                -0.086504,
                -0.0759041,
                -0.0845225,
                0.0255996,
                -0.0714836,
                0.0879539,
                0.0775623,
                0.0322311,
                0.0236614,
                -0.0777386,
                0.0580105,
                0.0127697,
                0.00527624,
                0.0419996,
                -0.0808446,
                -0.000372827,
                0.00101613,
                0.0938564,
                0.055267,
                -0.0239207
            ],
            "bias": [
                -0.075207,
                0.0907228,
                -0.0358279,
                -0.0351126,
                -0.0653924
            ],
            "internal": []
        },
        "blstm_level_2": {
            "input": [
                0.0914533,
                -0.0138558,
                0.0211919,
                -0.0770495,
                0.0893399,
                -0.0242486,
                -0.0813044,
                0.0776254,
                -0.0539368,
                -0.0843821,
                -0.00419545,
                0.0116481,
                0.0746677,
                0.0548578,
                -0.0371798,
                0.0810256,
                0.0427202,
                -0.0866221,
                0.0899317,
                -0.0367305,
                0.0958045,
                -0.0456158,
                -0.0847261,
                0.0175711,
                0.078747,
                -0.0582789,
                0.0490597,
                -0.0871684,
                -0.0164883,
                0.0855096,
                -0.0851786,
                -0.00877212,
                0.0621519,
                0.0277103,
                0.0557937,
                -0.0217469,
                0.096249,
                -0.0428643,
                -0.0682366,
                -0.0637245,
                -0.0419749,
                0.0262885,
                0.0815419,
                0.0201044,
                -0.0844351,
                -0.0251243,
                -0.0290911,
                0.0177548,
                -0.0465411,
                -0.0555932,
                -0.0930792,
                0.0861346,
                -0.0879873,
                -0.00273348,
                0.0548491,
                -0.000767723,
                0.0661218,
                0.0420776,
                -0.0125116,
                0.064598,
                -0.0697272,
                -0.0792677,
                -0.0120658,
                0.0326445,
                -0.0779093,
                -0.0239766,
                -0.082525,
                -0.0365464,
                -0.0314701,
                0.0653289,
                -0.0611168,
                -0.0598079,
                -0.0476933,
                -0.0382098,
                0.0763643,
                0.0646468,
                0.0872721,
                -0.0545153,
                0.0663372,
                -0.039405,
                0.0751536,
                0.0508048,
                -0.0329523,
                -0.0529275,
                -0.0594863,
                0.035046,
                0.00364979,
                -0.0783508,
                -0.0998967,
                0.0366956,
                0.0983126,
                0.0816563,
                -0.0362114,
                -0.00324129,
                -0.00243583,
                0.0161811,
                0.0106317,
                0.0246008,
                0.0180913,
                -0.0927597,
                -0.0403955,
                0.0499722,
                0.035896,
                -0.0827968,
                -0.0335871,
                0.0523095,
                -0.0107542,
                -0.095192,
                -0.0767368,
                0.00280311,
                0.0369527,
                0.0110946,
                -0.0411982,
                0.0682185,
                0.0705956,
                0.0752968,
                0.0522796,
                0.0725274,
                -0.031644,
                0.0422923,
                -0.0414331,
                0.0347045,
                0.0785064,
                0.0764038,
                -0.0891072,
                -0.0438076,
                -0.0505165,
                -0.014548,
                0.0747614,
                -0.0434115,
                0.0241636,
                0.0768414,
                0.0657268,
                -0.00116792,
                -0.0459057,
                -0.0524792,
                0.0673808,
                -0.0159893,
                0.00289039,
                -0.0320345,
                0.0328934,
                -0.0537295,
                -0.0356765,
                0.0155339,
                0.0718889,
                0.0609763,
                -0.0107535,
                -0.0328662,
                -0.0916116,
                0.0275785,
                -0.0200534,
                -0.0507412,
                -0.0229222,
                0.0260313,
                -0.0771367,
                0.0601891,
                0.0140626,
                -0.0890796,
                0.0580908,
                0.0612828,
                -0.0186911,
                0.0927075,
                0.0259137,
                0.0580193,
                0.0658734,
                -0.0533198,
                -0.0281156,
                -0.0172147,
                0.0228318,
                -0.0674347,
                -0.0959415,
                -0.0536509,
                0.0455131,
                0.0934402,
                0.0167161,
                -0.00600244,
                0.0814706,
                -0.0210535,
                0.0031601,
                0.00230886,
                -0.0463374,
                0.0410254,
                -0.0967045,
                -0.0063803,
                -0.0177351,
                -0.0677568,
                -0.0840594,
                0.0344282,
                0.0765821,
                -0.0750938,
                0.0595647,
                -0.0844656,
                -0.0778725,
                -0.0212192,
                0.082897,
                0.041608,
                -0.0744002,
                -0.0536184,
                0.0776381,
                0.0720241
            ],
            "bias": [
                -0.0715533,
                -0.0783127,
                -0.0168069,
                -0.0677231,
                0.0383288,
                -0.0684298,
                -0.0605801,
                -0.0313243,
                -0.0241097,
                0.0808723,
                0.0603133,
                -0.0276695,
                0.044108,
                -0.0781837,
                0.00551361,
                0.0642554,
                -0.0377394,
                0.0925042,
                -0.00306772,
                -0.00386669,
                0.0852795,
                0.0743192,
                -0.0104414,
                -0.078926,
                0.0400637,
                0.0909176,
                -0.0355091,
                -0.0812028,
                -0.0913063,
                -0.0553393,
                -0.00973575,
                -0.0297336,
                -0.0404246,
                0.0601588,
                -0.0872892,
                -0.0932912,
                -0.0513203,
                0.0576246,
                -0.0358784,
                -0.0826561
            ],
            "internal": [
                0.040703,
                -0.0278053,
                0.0681944,
                0.0116508,
                -0.021437,
                0.0346285,
                -0.0466797,
                -0.0821938,
                0.0606122,
                0.00416604,
                0.0225658,
                -0.0987865,
                -0.0323928,
                0.0445123,
                0.0598387,
                -0.0580367,
                -0.0450742,
                -0.0527217,
                0.00259113,
                0.00284114,
                -0.0622298,
                0.0661044,
                0.0222625,
                0.0453356,
                -0.0638003,
                -0.0487849,
                -0.0860964,
                0.0409022,
                0.0365855,
                -0.0961863,
                0.0235107,
                0.0334152,
                0.0861484,
                0.0289117,
                -0.0675753,
                -0.000258692,
                0.0271211,
                -0.0369005,
                -0.0462291,
                -0.00547162,
                -0.0998485,
                -0.0520054,
                -0.00676127,
                -0.0869344,
                0.0519917,
                0.0221299,
                0.0375348,
                -0.0815667,
                0.028408,
                0.00427572,
                0.0126971,
                0.0378942,
                0.0425974,
                -0.0267883,
                -0.0845674,
                -0.019521,
                0.0282936,
                0.0500076,
                0.0117353,
                0.0115391,
                0.0416125,
                -0.0218243,
                0.00821234,
                -0.0838899,
                -0.0439986,
                0.0755514,
                -0.0201168,
                -0.00745721,
                0.0649222,
                0.0678268,
                -0.0752022,
                0.0923359,
                0.0354897,
                -0.0350489,
                -0.0375898,
                -0.0452318,
                0.0955214,
                0.0075779,
                0.0276319,
                0.0250678,
                -0.0335271,
                -0.0612683,
                -0.0413025,
                -0.0619097,
                0.0754505,
                -0.0381862,
                -0.0576034,
                0.0683433,
                0.0436098,
                0.0812684,
                -0.00939085,
                -0.00370304,
                0.0398101,
                -0.0572437,
                0.0792576,
                -0.0470598,
                0.0026664,
                -0.0386356,
                -0.0613117,
                0.0405275,
                0.0506966,
                -0.0522398,
                0.00440569,
                -0.0982079,
                0.0457346,
                -0.0945485,
                0.00426282,
                -0.0764261,
                0.0549899,
                0.00226255,
                -0.0345134,
                0.0141865,
                -0.0606038,
                0.0120831,
                0.0910172,
                0.0196999,
                0.0524885,
                -0.0979918,
                -0.0735833,
                0.0691019,
                0.0250377,
                0.00843275,
                -0.0596075,
                -0.0279233,
                0.0851016,
                0.0502172,
                -0.0650085,
                0.0985461,
                0.0471928,
                -0.0105175,
                -0.0567059,
                -0.0515641,
                -0.0700428,
                0.0436801,
                -0.035343,
                0.0782943,
                0.0449789,
                0.045194,
                0.0511515,
                0.0414987,
                0.0336649,
                -0.0683757,
                -0.0633889,
                -0.0255979,
                0.00352876,
                -0.0747731,
                0.0687237,
                -0.0480748,
                -0.0459486,
                0.0363162,
                0.043931,
                0.0235016,
                0.0229172,
                0.0793333,
                -0.0653748,
                0.0902641,
                0.053872,
                -0.0484752,
                0.0278983,
                -0.0365945,
                0.0192473,
                0.0701491,
                0.0720809,
                0.0933448,
                0.0521295,
                -0.0920735,
                0.0187107,
                -0.0546426,
                -0.0964067,
                0.0998145,
                0.0992575,
                0.0692663,
                -0.0154744,
                -0.0799403,
                -0.00360514,
                -0.0126515,
                0.0438714,
                0.0610001,
                0.0749062,
                0.0746664,
                -0.0241747,
                0.0992552,
                -0.0902161,
                0.0328711,
                0.0727454,
                -0.0300535,
                0.0073567,
                0.0111467,
                0.0424673,
                0.096387,
                0.0516906,
                0.0767918,
                -0.0681711,
                0.0120406,
                -0.0235357,
                -0.0654803,
                0.0508809,
                -0.0498686,
                -0.0922269,
                0.0938324,
                0.0819373,
                -0.0801229,
                -0.00581904,
                -0.0546598,
                -0.0184361,
                0.0641448,
                -0.0898752,
                0.0905563,
                0.0313598,
                0.0933541,
                -0.0971309,
                -0.0841407,
                -0.0777522,
                0.0802725,
                -0.0165015,
                -0.0459809,
                -0.0193864,
                0.0566725,
                0.0529032,
                -0.00856541,
                -0.0959001,
                -0.0338273,
                -0.00916983,
                -0.00959609,
                0.0179288,
                -0.0498729,
                -0.0308455,
                -0.0878112,
                0.0717759,
                -0.0776272
            ]
        },
        "output": {
            "input": [
                -0.03205,
                -0.0485939,
                -0.025381,
                0.0378553,
                0.0380051,
                0.0904902,
                -0.0425728,
                0.00441831,
                0.0749402,
                0.0757614,
                -0.0256229,
                -0.0723063,
                -0.0884733,
                -0.0905719,
                -0.0116517,
                0.0155104,
                -0.0339495,
                0.017501,
                0.0151606,
                0.00954808,
                0.0343906,
                -0.0718828,
                0.039276,
                -0.0482918,
                0.095108,
                0.0456636,
                0.0226949,
                0.0326339,
                0.0753243,
                0.0480508,
                0.0562679,
                0.0788605,
                0.0508179,
                -0.000174418,
                -0.0460247,
                0.0163844,
                0.0246176,
                0.0503879,
                0.0604647,
                -0.00225633,
                -0.0557075,
                -0.0750611,
                -0.037965,
                -0.0986866,
                -0.00568669,
                -0.0566774,
                -0.00127491,
                -0.0611604,
                0.065714,
                0.087323,
                0.0599202,
                0.0887678,
                0.093296,
                0.087486,
                -0.0713311,
                -0.0406116,
                -0.0361578,
                -0.0290311,
                0.0614688,
                0.0665103,
                0.0569711,
                0.0597794,
                0.0797527,
                0.0872937,
                -0.0619963,
                0.059703,
                -0.0548294,
                0.00296768,
                0.0198906,
                -0.0622384,
                0.0557816,
                -0.0237009,
                -0.0648879,
                0.00177477,
                -0.0419943,
                0.0908287,
                -0.0698078,
                0.0190274,
                -0.00251422,
                0.0242607,
                -0.00337376,
                -0.05509,
                0.0986663,
                -0.0498835,
                0.0362442,
                -0.0267821,
                0.0107353,
                0.0636082,
                0.0318026,
                -0.0880729,
                -0.0911712,
                -0.0760911,
                -0.0996187,
                0.0324486,
                0.0595526,
                0.0163621,
                -0.0287996,
                0.0313615,
                0.0833061,
                -0.0214196,
                0.0815601,
                -0.0427444,
                0.0554797,
                -0.0694831,
                -0.0587367,
                -0.0889528,
                0.0677109,
                -0.0412235,
                -0.0714917,
                -0.0552195,
                -0.00179911,
                0.0851372,
                -0.0530807,
                0.00121943,
                0.0539454,
                -0.0259208,
                0.0863181,
                0.0109884,
                -0.066041,
                0.0545581,
                0.0345927,
                -0.0891505,
                -0.0297321,
                -0.0530805,
                -0.0934941,
                -0.0697934,
                -0.0692226,
                -0.0496757,
                -0.0864083,
                0.0416541,
                -0.0370705,
                -0.000466168,
                -0.0141849,
                0.040207,
                -0.0125894,
                -0.0450215,
                -0.0106391,
                0.0114759,
                0.0842413,
                0.0438874,
                0.0415102,
                -0.078966,
                -0.0775209,
                0.0780034,
                0.0681582,
                -0.00164813,
                0.0777305,
                0.0664251,
                -0.0847951,
                0.0867477,
                0.0586677,
                0.012595,
                0.0931948,
                -0.0992706,
                -0.0287046,
                0.0989782,
                0.0391643,
                -0.0477592,
                0.0673558,
                -0.0959373,
                0.0322108,
                -0.0388643,
                0.0382826,
                0.0423131,
                -0.0865065,
                -0.0998775,
                0.000195287,
                0.0895545,
                -0.0170207,
                0.0224715,
                -0.0678979,
                0.0185908,
                0.01802,
                -0.025022,
                0.0949369,
                0.0328962,
                0.0174128,
                -0.0242283,
                -0.035524,
                -0.0031113,
                0.0404296,
                0.0273323,
                0.0393169,
                -0.0715897,
                0.0201676,
                -0.0261129,
                -0.0489902,
                0.0861657,
                0.00168111,
                -0.0194302,
                -0.0315015,
                -0.0753676,
                -0.000848196,
                0.0917915,
                -0.000177599,
                -0.0969965,
                -0.0283749,
                -0.0350328,
                0.0166739,
                -0.089631,
                0.0968899,
                -0.0913413,
                -0.0446888,
                0.085616,
                0.0943124,
                -0.00567695,
                0.0820531,
                0.0552099,
                -0.0870371,
                -0.0956997,
                -0.0539113,
                -0.0140925,
                0.0550848,
                0.0323581,
                0.0351252,
                -0.0188544,
                0.0702437,
                -0.0303909,
                0.0576921,
                0.0260731,
                -0.0560491,
                0.0371556,
                -0.0668793,
                0.00522988,
                -0.0643514,
                0.0877821,
                0.0857194,
                0.0803817,
                0.0624009,
                0.0930285,
                0.085359,
                -0.0413918,
                0.0915127,
                0.0750932,
                -0.034168,
                0.0460279,
                -0.0706018,
                0.0518098,
                0.0825173,
                -0.0937471,
                0.00537391,
                -0.0493871,
                -0.0213439,
                -0.018627,
                -0.0729688,
                0.00198376,
                0.0645845,
                -0.0916003,
                0.0127476,
                -0.0265522,
                0.0136848,
                -0.0475595,
                -0.0324871,
                0.0225351,
                -0.0540767,
                0.0534307,
                0.014176,
                0.00887357,
                0.0604091,
                0.0368323,
                -0.0868509,
                0.0379857,
                -0.048947,
                -0.0912724,
                0.0226631,
                -0.0798571,
                -0.0550918,
                -0.0780359,
                0.0511848,
                -0.000165537,
                0.0507916,
                0.0677001,
                -0.0912779,
                0.0843657,
                0.0591856,
                0.0988307,
                0.0631222,
                0.0614671,
                0.0913761,
                -0.044961,
                0.0425835,
                -0.0265201,
                0.0970903,
                -0.0941008,
                -0.0310516,
                0.0356251,
                -0.0419102,
                -0.0590651,
                0.0949393,
                0.0271317,
                -0.0757592,
                0.0413287,
                -0.0805899,
                -0.00758641,
                -0.0130897,
                0.0316465,
                0.0301728,
                0.0525555,
                -0.0443408,
                0.0204841,
                0.0388221,
                0.0556891,
                0.0437566,
                0.0753351,
                0.0744866,
                0.0873993,
                -0.0536874,
                0.00202905,
                0.0983419,
                0.0275048,
                -0.0323347,
                -0.064764,
                -0.0508278,
                0.0371299,
                0.0778235,
                0.0973561,
                0.0501321,
                -0.083567,
                -0.0089671,
                0.0258542,
                0.052428,
                0.0799929,
                -0.0211224,
                0.0962915,
                0.0922744,
                -0.0863313,
                0.0120317,
                -0.0392055,
                0.050485,
                0.05363,
                -0.0251822,
                0.0955063,
                -0.0277939,
                0.0663089,
                0.0655438,
                0.078642,
                0.0860288,
                -0.0551196,
                -0.0634689,
                -0.0728449,
                -0.041816,
                -0.0283461,
                -0.0729119,
                -0.0283002,
                0.064777,
                -0.0785398,
                -0.0653173,
                0.0837079,
                0.0627612,
                -0.0153293,
                -0.00150545,
                0.0125798,
                0.0970414,
                -0.000820883,
                -0.0271686,
                -0.0350264,
                0.0892288,
                0.0207684,
                0.0348294,
                0.0222643,
                -0.0159325,
                0.0653268,
                -0.00900887,
                -0.0701776,
                0.0785487,
                -0.0310138,
                -0.0275416,
                -0.0752487,
                -0.0728599,
                -0.0623565,
                -0.0246316,
                0.0624881,
                -0.0305297,
                -0.0816023,
                -0.0503256,
                0.0368889,
                0.0852555,
                0.0650318,
                -0.0344614,
                0.0791882,
                0.0425171,
                -0.0887488,
                0.0595702,
                0.0878764,
                -0.0674417,
                0.0195973,
                0.0507304,
                -0.00317706,
                -0.0450638,
                -0.00661664,
                -0.0812131,
                0.0734019,
                0.00247525,
                -0.0064546,
                0.068835,
                -0.0347846,
                -0.0564522,
                -0.0181318,
                -0.0159071,
                0.091019,
                -0.0402599,
                0.0843556,
                -0.037693,
                -0.0745865,
                0.00416082,
                -0.0836269,
                0.0725446,
                0.0858886,
                -0.0837828,
                0.0271304,
                -0.0184519,
                -0.0198765,
                -0.03143,
                -0.075958,
                0.00412699,
                0.0241107,
                0.0774243,
                0.0364721,
                0.0374318,
                -0.00459196,
                -0.029331,
                -0.0733997,
                -0.0666485,
                0.000525855,
                0.0872228,
                0.0103554,
                0.0431474,
                -0.0644954,
                0.0621156,
                -0.0352042,
                -0.00842457,
                -0.0402034,
                0.0447754,
                -0.0624849,
                0.0818424,
                -0.0212368,
                -0.0416943,
                -0.0535553,
                -0.0203723,
                0.0712209,
                0.0101118,
                -0.0598383,
                0.00681965,
                -0.0953643,
                -0.00871611,
                -0.0545447,
                -0.0863841,
                0.0265689,
                -0.0337932,
                -0.0584265,
                -0.0991613,
                -0.0380722,
                -0.0699287,
                -0.0640112,
                0.0402692,
                0.0533907,
                -0.0633734,
                0.0484598,
                -0.0290157,
                0.0818971,
                -0.0261412,
                0.0284198,
                0.0189314,
                -0.0235124,
                -0.0313822,
                -0.0414424,
                -0.0458648,
                0.0373431,
                -0.0936012,
                -0.0717842,
                -0.0709448,
                -0.0626566,
                0.042709,
                -0.0308318,
                -0.0869944,
                0.0910522,
                -0.0746196,
                -0.0136963,
                0.00779717,
                -0.0726328,
                0.0971089,
                -0.0522714,
                0.010476,
                0.0113165,
                0.0402251,
                0.0216041,
                0.0583693,
                -0.0979695,
                -0.0449197,
                0.0603922,
                0.0894782,
                0.0273479,
                0.061134,
                -0.0886286,
                0.0477548,
                -0.0368261,
                0.0120337,
                0.0298326,
                0.0098097,
                0.00308958,
                -0.0892461,
                -0.0759658,
                0.0831968,
                0.0548078,
                -0.0600614,
                -0.0892522,
                0.00470154,
                -0.0826654,
                -0.0739895,
                -0.0592212
            ],
            "bias": [
                -0.0950374,
                -0.0508556,
                -0.0283948,
                -0.0287236,
                0.0922014,
                -0.0440609,
                -0.0257303,
                0.00437707,
                -0.0550757,
                -0.0663114,
                0.078409,
                -0.0856153,
                0.0929897,
                0.0646214,
                -0.0655861,
                -0.0818074,
                -0.0736974,
                -0.0551569,
                -0.0343496,
                0.0898634,
                -0.0435679,
                0.0560763,
                -0.0114757,
                0.0521881,
                -0.0236923,
                -0.0440836,
                -0.099292,
                -0.0193621,
                -0.0531019,
                0.0896984,
                -0.0857611,
                -0.0769201,
                0.0112529,
                -0.0453893,
                0.0816721,
                -0.0831057,
                -0.0896726,
                0.0820122,
                -0.0347596,
                -0.0924226,
                -0.0148185,
                0.0162895,
                0.0433019,
                0.00519995,
                -0.00247436,
                0.000293076,
                0.0110571,
                -0.0924199,
                -0.0214582,
                -0.0959989,
                -0.0192839
            ],
            "internal": []
        }
    }
}